Language model created by QuickLM on Sat Jul 18 18:54:47 EDT 2015
Copyright (c) 1996-2010 Carnegie Mellon University and Alexander I. Rudnicky

The model is in standard ARPA format, designed by Doug Paul while he was at MITRE.

The code that was used to produce this language model is available in Open Source.
Please visit http://www.speech.cs.cmu.edu/tools/ for more information

The (fixed) discount mass is 0.5. The backoffs are computed using the ratio method.
This model based on a corpus of 14 sentences and 27 words

\data\
ngram 1=27
ngram 2=36
ngram 3=31

\1-grams:
-1.9191 75 -0.2628
-1.0740 </s> -0.3010
-1.0740 <s> -0.2628
-1.9191 FIVE -0.2628
-2.2201 GARAGE -0.2628
-2.2201 IN -0.2984
-1.9191 IS -0.2958
-1.6180 JARVIS -0.2796
-1.6180 LIGHT -0.2904
-1.6180 MADALYN -0.2796
-1.9191 OFF -0.2628
-2.2201 OKAY -0.2984
-1.9191 ON -0.2628
-1.6180 ONE -0.2904
-2.2201 OPEN -0.2984
-2.2201 PI -0.2628
-2.2201 RAMONA -0.2628
-1.3170 SET -0.2796
-1.9191 SEVENTY -0.2958
-2.2201 SHUTDOWN -0.2628
-2.2201 START -0.2984
-1.6180 TEMPERATURE -0.2904
-1.9191 THE -0.2958
-2.2201 TIME -0.2628
-2.2201 TRANSLATOR -0.2628
-2.2201 WEATHER -0.2984
-1.9191 WHAT -0.2958

\2-grams:
-0.3010 75 </s> -0.3010
-0.8451 <s> JARVIS 0.0000
-0.8451 <s> MADALYN 0.0000
-1.4472 <s> OKAY 0.0000
-1.4472 <s> OPEN 0.0000
-1.4472 <s> SHUTDOWN 0.0000
-1.4472 <s> START 0.0000
-1.1461 <s> WHAT 0.0000
-0.3010 FIVE </s> -0.3010
-0.3010 GARAGE </s> -0.3010
-0.3010 IN RAMONA 0.0000
-0.3010 IS THE 0.0000
-0.3010 JARVIS SET 0.0000
-0.3010 LIGHT ONE 0.0000
-0.3010 MADALYN SET 0.0000
-0.3010 OFF </s> -0.3010
-0.3010 OKAY PI 0.0000
-0.3010 ON </s> -0.3010
-0.6021 ONE OFF 0.0000
-0.6021 ONE ON 0.0000
-0.3010 OPEN GARAGE 0.0000
-0.3010 PI </s> -0.3010
-0.3010 RAMONA </s> -0.3010
-0.6021 SET LIGHT 0.0000
-0.6021 SET TEMPERATURE 0.0000
-0.3010 SEVENTY FIVE 0.0000
-0.3010 SHUTDOWN </s> -0.3010
-0.3010 START TRANSLATOR 0.0000
-0.6021 TEMPERATURE 75 0.0000
-0.6021 TEMPERATURE SEVENTY 0.0000
-0.6021 THE TIME 0.0000
-0.6021 THE WEATHER 0.0000
-0.3010 TIME </s> -0.3010
-0.3010 TRANSLATOR </s> -0.3010
-0.3010 WEATHER IN 0.0000
-0.3010 WHAT IS 0.0000

\3-grams:
-0.3010 <s> JARVIS SET
-0.3010 <s> MADALYN SET
-0.3010 <s> OKAY PI
-0.3010 <s> OPEN GARAGE
-0.3010 <s> SHUTDOWN </s>
-0.3010 <s> START TRANSLATOR
-0.3010 <s> WHAT IS
-0.3010 IN RAMONA </s>
-0.6021 IS THE TIME
-0.6021 IS THE WEATHER
-0.6021 JARVIS SET LIGHT
-0.6021 JARVIS SET TEMPERATURE
-0.6021 LIGHT ONE OFF
-0.6021 LIGHT ONE ON
-0.6021 MADALYN SET LIGHT
-0.6021 MADALYN SET TEMPERATURE
-0.3010 OKAY PI </s>
-0.3010 ONE OFF </s>
-0.3010 ONE ON </s>
-0.3010 OPEN GARAGE </s>
-0.3010 SET LIGHT ONE
-0.6021 SET TEMPERATURE 75
-0.6021 SET TEMPERATURE SEVENTY
-0.3010 SEVENTY FIVE </s>
-0.3010 START TRANSLATOR </s>
-0.3010 TEMPERATURE 75 </s>
-0.3010 TEMPERATURE SEVENTY FIVE
-0.3010 THE TIME </s>
-0.3010 THE WEATHER IN
-0.3010 WEATHER IN RAMONA
-0.3010 WHAT IS THE

\end\
