Language model created by QuickLM on Mon Jul 27 15:58:48 EDT 2015
Copyright (c) 1996-2010 Carnegie Mellon University and Alexander I. Rudnicky

The model is in standard ARPA format, designed by Doug Paul while he was at MITRE.

The code that was used to produce this language model is available in Open Source.
Please visit http://www.speech.cs.cmu.edu/tools/ for more information

The (fixed) discount mass is 0.5. The backoffs are computed using the ratio method.
This model based on a corpus of 8 sentences and 9 words

\data\
ngram 1=9
ngram 2=13
ngram 3=18

\1-grams:
-1.0792 </s> -0.3010
-1.0792 <s> -0.2632
-1.3802 FAN -0.2632
-1.0792 JARVIS -0.2632
-1.3802 LIGHT -0.2632
-1.3802 OFF -0.2632
-1.3802 ON -0.2632
-1.3802 ONE -0.2632
-1.3802 TWO -0.2632

\2-grams:
-0.6021 <s> FAN 0.0000
-0.6021 <s> LIGHT 0.0000
-0.6021 FAN ONE 0.0000
-0.6021 FAN TWO 0.0000
-0.3010 JARVIS </s> -0.3010
-0.6021 LIGHT ONE 0.0000
-0.6021 LIGHT TWO 0.0000
-0.3010 OFF JARVIS 0.0000
-0.3010 ON JARVIS 0.0000
-0.6021 ONE OFF 0.0000
-0.6021 ONE ON 0.0000
-0.6021 TWO OFF 0.0000
-0.6021 TWO ON 0.0000

\3-grams:
-0.6021 <s> FAN ONE
-0.6021 <s> FAN TWO
-0.6021 <s> LIGHT ONE
-0.6021 <s> LIGHT TWO
-0.6021 FAN ONE OFF
-0.6021 FAN ONE ON
-0.6021 FAN TWO OFF
-0.6021 FAN TWO ON
-0.6021 LIGHT ONE OFF
-0.6021 LIGHT ONE ON
-0.6021 LIGHT TWO OFF
-0.6021 LIGHT TWO ON
-0.3010 OFF JARVIS </s>
-0.3010 ON JARVIS </s>
-0.3010 ONE OFF JARVIS
-0.3010 ONE ON JARVIS
-0.3010 TWO OFF JARVIS
-0.3010 TWO ON JARVIS

\end\
